digraph Tree {
node [shape=box] ;
0 [label="X[2] <= 2.45\ngini = 0.664\nsamples = 139\nvalue = [49, 41, 49]"] ;
1 [label="gini = 0.0\nsamples = 49\nvalue = [49, 0, 0]"] ;
0 -> 1 [labeldistance=2.5, labelangle=45, headlabel="True"] ;
2 [label="X[3] <= 1.75\ngini = 0.496\nsamples = 90\nvalue = [0, 41, 49]"] ;
0 -> 2 [labeldistance=2.5, labelangle=-45, headlabel="False"] ;
3 [label="X[2] <= 5.05\ngini = 0.165\nsamples = 44\nvalue = [0, 40, 4]"] ;
2 -> 3 ;
4 [label="gini = 0.049\nsamples = 40\nvalue = [0, 39, 1]"] ;
3 -> 4 ;
5 [label="gini = 0.375\nsamples = 4\nvalue = [0, 1, 3]"] ;
3 -> 5 ;
6 [label="X[2] <= 4.85\ngini = 0.043\nsamples = 46\nvalue = [0, 1, 45]"] ;
2 -> 6 ;
7 [label="gini = 0.444\nsamples = 3\nvalue = [0, 1, 2]"] ;
6 -> 7 ;
8 [label="gini = 0.0\nsamples = 43\nvalue = [0, 0, 43]"] ;
6 -> 8 ;
}